<?xml version="1.0"?>
<opencv_storage>
<cascade>
  <stageType>BOOST</stageType>
  <featureType>LBP</featureType>
  <height>50</height>
  <width>50</width>
  <stageParams>
    <boostType>GAB</boostType>
    <minHitRate>9.9900001287460327e-01</minHitRate>
    <maxFalseAlarm>5.0000000000000000e-01</maxFalseAlarm>
    <weightTrimRate>9.4999999999999996e-01</weightTrimRate>
    <maxDepth>1</maxDepth>
    <maxWeakCount>100</maxWeakCount></stageParams>
  <featureParams>
    <maxCatCount>256</maxCatCount>
    <featSize>1</featSize></featureParams>
  <stageNum>16</stageNum>
  <stages>
    <!-- stage 0 -->
    <_>
      <maxWeakCount>4</maxWeakCount>
      <stageThreshold>-1.8920946121215820e+00</stageThreshold>
      <weakClassifiers>
        <_>
          <internalNodes>
            0 -1 42 -1 -545 -547893297 -33 1935114087 -557790 -559241
            -524425</internalNodes>
          <leafValues>
            -8.9484930038452148e-01 1.8105262517929077e-01</leafValues></_>
        <_>
          <internalNodes>
            0 -1 49 -196866 -543440897 1250226000 -2764331 -67372097
            -272762113 -288292865 -17</internalNodes>
          <leafValues>
            -7.5590437650680542e-01 4.8385795950889587e-01</leafValues></_>
        <_>
          <internalNodes>
            0 -1 0 -2097154 -69206529 -274269191 -1346 -5260374 -4735045
            -267278 -144476366</internalNodes>
          <leafValues>
            -7.0222938060760498e-01 5.6292450428009033e-01</leafValues></_>
        <_>
          <internalNodes>
            0 -1 103 -17268739 -33751041 -134479873 -3 -1093698561
            -6947976 -67109892 -1475283392</internalNodes>
          <leafValues>
            -6.1501353979110718e-01 5.9113478660583496e-01</leafValues></_></weakClassifiers></_>
    <!-- stage 1 -->
    <_>
      <maxWeakCount>5</maxWeakCount>
      <stageThreshold>-1.5388169288635254e+00</stageThreshold>
      <weakClassifiers>
        <_>
          <internalNodes>
            0 -1 17 -134217729 -1049637 -679477777 -169872421 1933801271
            -247205385 -560349 -134744201</internalNodes>
          <leafValues>
            -8.7668919563293457e-01 1.5341545641422272e-01</leafValues></_>
        <_>
          <internalNodes>
            0 -1 44 -524433 -1048577 -35785786 -2097161 2002220919
            2069197143 -136872591 -144179337</internalNodes>
          <leafValues>
            -7.7934926748275757e-01 3.5146272182464600e-01</leafValues></_>
        <_>
          <internalNodes>
            0 -1 116 -197123 -336385 -33988609 -2113537 -532483
            -67466242 -23068690 -1065344000</internalNodes>
          <leafValues>
            -6.3925272226333618e-01 5.2012205123901367e-01</leafValues></_>
        <_>
          <internalNodes>
            0 -1 60 -33751076 -134291459 -19333660 -21168588 -120980481
            -2426032 -9634488 -666501165</internalNodes>
          <leafValues>
            -7.8555017709732056e-01 3.8487067818641663e-01</leafValues></_>
        <_>
          <internalNodes>
            0 -1 79 -1858846723 -281216513 -44237841 -12200993
            -606471171 -604378178 -74456066 -2065431872</internalNodes>
          <leafValues>
            -6.1889225244522095e-01 5.2064144611358643e-01</leafValues></_></weakClassifiers></_>
    <!-- stage 2 -->
    <_>
      <maxWeakCount>6</maxWeakCount>
      <stageThreshold>-1.8168909549713135e+00</stageThreshold>
      <weakClassifiers>
        <_>
          <internalNodes>
            0 -1 0 -1048577 -4205585 -705693697 -2561 -4198401 -40895521
            -71565318 -525453</internalNodes>
          <leafValues>
            -8.4827303886413574e-01 1.4509804546833038e-01</leafValues></_>
        <_>
          <internalNodes>
            0 -1 20 -10485761 -2689796 -687540236 -41879740 -372244481
            -71554246 -2752513 -614933832</internalNodes>
          <leafValues>
            -7.3568731546401978e-01 3.1727638840675354e-01</leafValues></_>
        <_>
          <internalNodes>
            0 -1 62 -33751047 -204833 -1074028609 -458754 -1 -852998
            -110137858 -998189568</internalNodes>
          <leafValues>
            -6.0190826654434204e-01 5.3001695871353149e-01</leafValues></_>
        <_>
          <internalNodes>
            0 -1 35 -10249 -524291 -17 -262145 2012706801 2147448693
            -143165451 -134776969</internalNodes>
          <leafValues>
            -5.1394736766815186e-01 5.9248763322830200e-01</leafValues></_>
        <_>
          <internalNodes>
            0 -1 2 -4457179 -1 -8274 -67109377 2121498618 2079292759
            1935900471 2004317543</internalNodes>
          <leafValues>
            -6.2445461750030518e-01 4.3728432059288025e-01</leafValues></_>
        <_>
          <internalNodes>
            0 -1 115 -52887559 -35734148 -39985187 -35924546 -135659524
            -109364738 -607126564 -400284672</internalNodes>
          <leafValues>
            -6.0732305049896240e-01 4.8147985339164734e-01</leafValues></_></weakClassifiers></_>
    <!-- stage 3 -->
    <_>
      <maxWeakCount>7</maxWeakCount>
      <stageThreshold>-2.0714862346649170e+00</stageThreshold>
      <weakClassifiers>
        <_>
          <internalNodes>
            0 -1 5 -2162689 -9729 -137102337 -4194337 -88211457 -135429
            -5242881 -135040157</internalNodes>
          <leafValues>
            -8.5561728477478027e-01 -9.5036961138248444e-03</leafValues></_>
        <_>
          <internalNodes>
            0 -1 12 -147851801 -238036065 -724323448 -95945837
            1734702437 1749368995 -248051977 -134776969</internalNodes>
          <leafValues>
            -6.6744452714920044e-01 3.4043326973915100e-01</leafValues></_>
        <_>
          <internalNodes>
            0 -1 97 -646656643 -168404481 -1715767297 -3312161 -72105987
            -4286221 -609607683 540034048</internalNodes>
          <leafValues>
            -6.3907963037490845e-01 4.1900601983070374e-01</leafValues></_>
        <_>
          <internalNodes>
            0 -1 52 -12517382 2002050020 -44544932 -176934704 -672006145
            -1094130230 -2248705 -976486657</internalNodes>
          <leafValues>
            -6.6167032718658447e-01 4.2999792098999023e-01</leafValues></_>
        <_>
          <internalNodes>
            0 -1 40 -134219785 -276305155 -236593114 -25861 1902343956
            2013086017 1742955125 2004318071</internalNodes>
          <leafValues>
            -7.4759870767593384e-01 3.8324445486068726e-01</leafValues></_>
        <_>
          <internalNodes>
            0 -1 47 -142540811 -1410625 -548809859 -10764898 -108413475
            -338887719 -1080164436 536928256</internalNodes>
          <leafValues>
            -7.5383371114730835e-01 3.8501068949699402e-01</leafValues></_>
        <_>
          <internalNodes>
            0 -1 85 -52464556 -1252533380 -730545192 -6377057 1421823052
            463284413 1080928360 2004877151</internalNodes>
          <leafValues>
            -7.4905943870544434e-01 3.4955871105194092e-01</leafValues></_></weakClassifiers></_>
    <!-- stage 4 -->
    <_>
      <maxWeakCount>5</maxWeakCount>
      <stageThreshold>-1.7934192419052124e+00</stageThreshold>
      <weakClassifiers>
        <_>
          <internalNodes>
            0 -1 0 -1058817 -603986961 1267192319 -33823009 -72877126
            -16268885 -266278 -134776973</internalNodes>
          <leafValues>
            -8.7386155128479004e-01 -1.4308811724185944e-01</leafValues></_>
        <_>
          <internalNodes>
            0 -1 41 -134220881 -1116177 -1048579098 -134231409
            2138534515 -82347113 -214471818 -11045001</internalNodes>
          <leafValues>
            -7.3290055990219116e-01 2.3732484877109528e-01</leafValues></_>
        <_>
          <internalNodes>
            0 -1 61 -253776342 -3212913 -1382320896 -170661010
            2026630029 1060741215 -744753682 2013261791</internalNodes>
          <leafValues>
            -7.4036031961441040e-01 2.9687890410423279e-01</leafValues></_>
        <_>
          <internalNodes>
            0 -1 82 -10485761 -48235527 -262223396 -33697804 -69272070
            -18678796 2101661180 -834274726</internalNodes>
          <leafValues>
            -5.2865672111511230e-01 4.4179502129554749e-01</leafValues></_>
        <_>
          <internalNodes>
            0 -1 64 -302188611 -3525697 -44040713 -1915938 -106825539
            -4343367 -83119156 12878912</internalNodes>
          <leafValues>
            -6.1886525154113770e-01 4.4640338420867920e-01</leafValues></_></weakClassifiers></_>
    <!-- stage 5 -->
    <_>
      <maxWeakCount>8</maxWeakCount>
      <stageThreshold>-2.0886623859405518e+00</stageThreshold>
      <weakClassifiers>
        <_>
          <internalNodes>
            0 -1 38 -70254609 -34612833 -935071305 -6657 -842565961
            -91403939 -109614353 -526345</internalNodes>
          <leafValues>
            -8.3095037937164307e-01 -7.2164945304393768e-02</leafValues></_>
        <_>
          <internalNodes>
            0 -1 1 -10485761 -70257153 -348274710 -102763877 -673452037
            -222836102 -33556533 -8947913</internalNodes>
          <leafValues>
            -5.6548398733139038e-01 3.9184179902076721e-01</leafValues></_>
        <_>
          <internalNodes>
            0 -1 100 -2142625 786307055 1750781686 -50533140 2122148180
            -72100081 -633538108 -254477628</internalNodes>
          <leafValues>
            -6.6539192199707031e-01 3.2392272353172302e-01</leafValues></_>
        <_>
          <internalNodes>
            0 -1 10 -589826 -84344936 -206777611 -3367300 -288555105
            -826380946 -1692734467 -13509249</internalNodes>
          <leafValues>
            -5.6411516666412354e-01 4.0860226750373840e-01</leafValues></_>
        <_>
          <internalNodes>
            0 -1 36 -52432993 -52430865 -262682394 1961878366 1741104945
            1456850503 2136373860 -159940745</internalNodes>
          <leafValues>
            -5.9228199720382690e-01 4.2008766531944275e-01</leafValues></_>
        <_>
          <internalNodes>
            0 -1 113 -648249347 -2311841 -575488513 -6507017 -4194306
            -73821459 -37553428 -1602182144</internalNodes>
          <leafValues>
            -5.9608501195907593e-01 3.9681503176689148e-01</leafValues></_>
        <_>
          <internalNodes>
            0 -1 80 -1709212161 -356846665 -414556353 -136907076
            909064189 1055946643 2121160509 -394463408</internalNodes>
          <leafValues>
            -5.5426925420761108e-01 3.8719141483306885e-01</leafValues></_>
        <_>
          <internalNodes>
            0 -1 107 -557298 -35694757 -378413360 2021286614 1867348552
            1609351774 -151067964 -186646537</internalNodes>
          <leafValues>
            -6.2277048826217651e-01 3.4913995862007141e-01</leafValues></_></weakClassifiers></_>
    <!-- stage 6 -->
    <_>
      <maxWeakCount>7</maxWeakCount>
      <stageThreshold>-2.4583318233489990e+00</stageThreshold>
      <weakClassifiers>
        <_>
          <internalNodes>
            0 -1 28 -2099249 -19403825 -844453889 -268438545 1964078319
            -777551425 1431796719 -134746121</internalNodes>
          <leafValues>
            -8.1058609485626221e-01 -2.5787966325879097e-02</leafValues></_>
        <_>
          <internalNodes>
            0 -1 87 -1177273859 -2378849 -7741443 -177665 -70256641
            -4888133 -3146257 -1440607232</internalNodes>
          <leafValues>
            -6.0595661401748657e-01 3.0869907140731812e-01</leafValues></_>
        <_>
          <internalNodes>
            0 -1 16 -4196441 -439353861 -1812472854 -19922993 2002220325
            1460883491 1866954532 -134776969</internalNodes>
          <leafValues>
            -5.9620040655136108e-01 3.6471807956695557e-01</leafValues></_>
        <_>
          <internalNodes>
            0 -1 93 -570719148 2044636111 -213066249 2009061225
            -993650532 -551585282 -646956868 -106725585</internalNodes>
          <leafValues>
            -5.7139241695404053e-01 3.7249171733856201e-01</leafValues></_>
        <_>
          <internalNodes>
            0 -1 57 -7284739 -208216585 -115761153 -547696262 -13898243
            -1346400051 -393474 4235328</internalNodes>
          <leafValues>
            -6.5884470939636230e-01 3.8249245285987854e-01</leafValues></_>
        <_>
          <internalNodes>
            0 -1 45 -539 -69250577 -504508212 -2099297 1931706167
            938985495 1600475991 1987147095</internalNodes>
          <leafValues>
            -7.6587748527526855e-01 2.6183286309242249e-01</leafValues></_>
        <_>
          <internalNodes>
            0 -1 71 -67108899 -538212487 -1047199884 -136988744
            -225378340 -23545811 -116069404 -37099537</internalNodes>
          <leafValues>
            -5.1852148771286011e-01 4.0954458713531494e-01</leafValues></_></weakClassifiers></_>
    <!-- stage 7 -->
    <_>
      <maxWeakCount>6</maxWeakCount>
      <stageThreshold>-2.0749688148498535e+00</stageThreshold>
      <weakClassifiers>
        <_>
          <internalNodes>
            0 -1 0 -1050114 -71304993 -1014046723 -1059361 -358630470
            -108061557 -69472518 -559245</internalNodes>
          <leafValues>
            -8.7482148408889771e-01 -2.3756131529808044e-01</leafValues></_>
        <_>
          <internalNodes>
            0 -1 102 -103024652 -15611057 -205324295 -3344103 -796858388
            -9508388 -1909392642 -3146245</internalNodes>
          <leafValues>
            -6.0777795314788818e-01 2.4987868964672089e-01</leafValues></_>
        <_>
          <internalNodes>
            0 -1 15 -273418761 1935602916 -654063393 -39856641 123033021
            -612065148 2104295913 2113365365</internalNodes>
          <leafValues>
            -5.3396505117416382e-01 3.4489357471466064e-01</leafValues></_>
        <_>
          <internalNodes>
            0 -1 66 -1431635024 1066465552 -795715587 -182664312
            1115769311 -106374753 -1213637636 1231282167</internalNodes>
          <leafValues>
            -6.1057919263839722e-01 3.0627289414405823e-01</leafValues></_>
        <_>
          <internalNodes>
            0 -1 96 -1110426128 -537118273 -174992065 -142625795
            -37217540 -24180194 -21976388 -1533018112</internalNodes>
          <leafValues>
            -6.5090769529342651e-01 2.9727044701576233e-01</leafValues></_>
        <_>
          <internalNodes>
            0 -1 86 -17830140 -1615760866 1525068858 364348246
            -559168764 1855811819 1890378100 1464590195</internalNodes>
          <leafValues>
            -7.1283131837844849e-01 2.5490450859069824e-01</leafValues></_></weakClassifiers></_>
    <!-- stage 8 -->
    <_>
      <maxWeakCount>9</maxWeakCount>
      <stageThreshold>-2.0549778938293457e+00</stageThreshold>
      <weakClassifiers>
        <_>
          <internalNodes>
            0 -1 50 -2098209 -984264 -199666273 -576883852 -1683293521
            -2464833 -71119921 -8388865</internalNodes>
          <leafValues>
            -8.1575101613998413e-01 -1.3064132630825043e-01</leafValues></_>
        <_>
          <internalNodes>
            0 -1 25 -324014617 -592042 1359207838 -536880321 1144275444
            1808626451 1996453629 -560521</internalNodes>
          <leafValues>
            -5.8390468358993530e-01 2.4275793135166168e-01</leafValues></_>
        <_>
          <internalNodes>
            0 -1 76 -874059900 -4279365 -130984449 -40187510 -84206931
            -70670150 -1140876293 1077372930</internalNodes>
          <leafValues>
            -5.4799169301986694e-01 3.1614187359809875e-01</leafValues></_>
        <_>
          <internalNodes>
            0 -1 6 -1075841549 -1285845702 -720768807 -153393338
            -1142949381 -868433615 -1080960069 1983083315</internalNodes>
          <leafValues>
            -5.6843566894531250e-01 3.1923303008079529e-01</leafValues></_>
        <_>
          <internalNodes>
            0 -1 54 -626198600 -10685732 319353117 -107638567
            -1178942211 -3165777 -1148526338 789601328</internalNodes>
          <leafValues>
            -7.7408689260482788e-01 2.7160707116127014e-01</leafValues></_>
        <_>
          <internalNodes>
            0 -1 9 -1360336918 -1960651002 -653090448 900953270
            676715519 436141149 324566009 1107281919</internalNodes>
          <leafValues>
            -7.0659524202346802e-01 2.4300661683082581e-01</leafValues></_>
        <_>
          <internalNodes>
            0 -1 104 -9481705 936531697 -1206854402 1658622926 -13735864
            -29640135 -60503336 -530120705</internalNodes>
          <leafValues>
            -5.0201410055160522e-01 3.5563170909881592e-01</leafValues></_>
        <_>
          <internalNodes>
            0 -1 21 -171971346 157732290 554945456 -467723 8081902
            223337127 1122120436 -721946634</internalNodes>
          <leafValues>
            -5.3980147838592529e-01 3.3623287081718445e-01</leafValues></_>
        <_>
          <internalNodes>
            0 -1 83 -1835305 -8070716 -542712617 -616541804 -910187556
            -1692754412 -797844054 1227217034</internalNodes>
          <leafValues>
            -4.6440866589546204e-01 3.9587840437889099e-01</leafValues></_></weakClassifiers></_>
    <!-- stage 9 -->
    <_>
      <maxWeakCount>8</maxWeakCount>
      <stageThreshold>-2.2113256454467773e+00</stageThreshold>
      <weakClassifiers>
        <_>
          <internalNodes>
            0 -1 33 -33 -77608961 -184197249 -1333 -70294597 -92206637
            -288359441 -526345</internalNodes>
          <leafValues>
            -8.0337882041931152e-01 -9.4972066581249237e-02</leafValues></_>
        <_>
          <internalNodes>
            0 -1 84 389586941 -1617039043 -142639105 -33694149
            -1206009859 -8520804 -69222466 -2012345344</internalNodes>
          <leafValues>
            -6.1171954870223999e-01 1.7340499162673950e-01</leafValues></_>
        <_>
          <internalNodes>
            0 -1 63 130023419 -1939019966 -824199599 -304547468
            267089883 -1633 -537397516 -457183344</internalNodes>
          <leafValues>
            -5.0027602910995483e-01 3.3888465166091919e-01</leafValues></_>
        <_>
          <internalNodes>
            0 -1 26 -1048625 -289408050 2045639118 -100677121 391476593
            860303537 1996969780 1968661879</internalNodes>
          <leafValues>
            -6.5176582336425781e-01 2.6850947737693787e-01</leafValues></_>
        <_>
          <internalNodes>
            0 -1 109 -369101281 417324511 -459479765 -453443798
            -18261436 -48296721 -389742628 -117637132</internalNodes>
          <leafValues>
            -4.7681957483291626e-01 3.6060208082199097e-01</leafValues></_>
        <_>
          <internalNodes>
            0 -1 118 -52888132 1959531511 -538124290 -589382659
            -1158325288 -1074129266 2080111068 64</internalNodes>
          <leafValues>
            -8.2423853874206543e-01 2.0700952410697937e-01</leafValues></_>
        <_>
          <internalNodes>
            0 -1 27 -271581258 776890990 -1709255888 -1267838
            -1028654147 199138251 -1178617866 -151816525</internalNodes>
          <leafValues>
            -5.6666946411132812e-01 2.9687735438346863e-01</leafValues></_>
        <_>
          <internalNodes>
            0 -1 117 -1397236169 1862465330 2009519826 -1505041592
            456124924 -1976959856 1811741428 -1941379668</internalNodes>
          <leafValues>
            -5.6540292501449585e-01 2.9898789525032043e-01</leafValues></_></weakClassifiers></_>
    <!-- stage 10 -->
    <_>
      <maxWeakCount>10</maxWeakCount>
      <stageThreshold>-2.4664506912231445e+00</stageThreshold>
      <weakClassifiers>
        <_>
          <internalNodes>
            0 -1 37 -1048577 -144717427 -1014772769 -573834353
            1674017727 -272012603 -622855169 -526345</internalNodes>
          <leafValues>
            -8.0844020843505859e-01 -1.3459119200706482e-01</leafValues></_>
        <_>
          <internalNodes>
            0 -1 8 -1693521932 -15171235 353443285 -2269830 -383804423
            -23418149 -1675888129 1086578756</internalNodes>
          <leafValues>
            -6.7258524894714355e-01 8.2259900867938995e-02</leafValues></_>
        <_>
          <internalNodes>
            0 -1 75 -1682202725 -1149978424 854851573 -34278020
            -1740951557 -1344280161 -1092322099 -922950108</internalNodes>
          <leafValues>
            -4.7728252410888672e-01 3.1552103161811829e-01</leafValues></_>
        <_>
          <internalNodes>
            0 -1 0 -1097754 -82837777 -410495528 -2123010 -207897942
            -30192993 803958512 908218738</internalNodes>
          <leafValues>
            -8.0831193923950195e-01 1.9762167334556580e-01</leafValues></_>
        <_>
          <internalNodes>
            0 -1 39 -21498004 -678961441 -1650472490 -583120433
            1965318901 732053319 1662483287 2136431221</internalNodes>
          <leafValues>
            -6.7752838134765625e-01 2.4546374380588531e-01</leafValues></_>
        <_>
          <internalNodes>
            0 -1 91 -2622828 -112471841 -714292999 -70422125 -779816768
            -119707185 -788400166 -648031397</internalNodes>
          <leafValues>
            -4.8248830437660217e-01 3.5673186182975769e-01</leafValues></_>
        <_>
          <internalNodes>
            0 -1 77 483425525 930937485 -205301285 -541296748 495805168
            -859283 1940392508 -73119532</internalNodes>
          <leafValues>
            -5.7928210496902466e-01 2.7352058887481689e-01</leafValues></_>
        <_>
          <internalNodes>
            0 -1 92 2054196024 -143793671 72604639 -6581357 -36525487
            -584496963 1856891898 -2141016544</internalNodes>
          <leafValues>
            -5.6871360540390015e-01 2.9300424456596375e-01</leafValues></_>
        <_>
          <internalNodes>
            0 -1 48 -287947862 -1223436827 1831463568 1880127753
            -1970606881 1848672296 -1764046166 1195372479</internalNodes>
          <leafValues>
            -6.7663639783859253e-01 2.5566816329956055e-01</leafValues></_>
        <_>
          <internalNodes>
            0 -1 31 -342360074 1375814603 -989681512 -169890577
            644052662 1881497859 1933799674 -134779081</internalNodes>
          <leafValues>
            -4.3813014030456543e-01 3.7957447767257690e-01</leafValues></_></weakClassifiers></_>
    <!-- stage 11 -->
    <_>
      <maxWeakCount>10</maxWeakCount>
      <stageThreshold>-1.7448047399520874e+00</stageThreshold>
      <weakClassifiers>
        <_>
          <internalNodes>
            0 -1 4 -1048577 -640681781 -2051075702 -10162 1895005427
            -74624605 -59802627 -135825545</internalNodes>
          <leafValues>
            -8.4466022253036499e-01 -3.8585609197616577e-01</leafValues></_>
        <_>
          <internalNodes>
            0 -1 106 -229647497 -537219842 -320872869 1654849120
            -1342448376 -1079289173 -17068038 1080284226</internalNodes>
          <leafValues>
            -6.8373566865921021e-01 5.8940697461366653e-02</leafValues></_>
        <_>
          <internalNodes>
            0 -1 68 -589547848 -271525923 -708706947 -538118660
            -640811523 -69680131 2147340268 -2077228032</internalNodes>
          <leafValues>
            -7.2238755226135254e-01 1.8223194777965546e-01</leafValues></_>
        <_>
          <internalNodes>
            0 -1 46 -12555 -537791795 -706772373 -2114849 1931701351
            1980196947 2059890759 2004055927</internalNodes>
          <leafValues>
            -7.1349680423736572e-01 2.3821072280406952e-01</leafValues></_>
        <_>
          <internalNodes>
            0 -1 70 -1599422952 -153174188 -718633 -1110838732 731069438
            -1362128726 -8254850 -185078538</internalNodes>
          <leafValues>
            -5.0950127840042114e-01 3.0083608627319336e-01</leafValues></_>
        <_>
          <internalNodes>
            0 -1 73 -1080475907 -619392656 -485363341 -208375272
            1721097628 -114026124 -1359047684 -636158466</internalNodes>
          <leafValues>
            -4.1462150216102600e-01 3.9371713995933533e-01</leafValues></_>
        <_>
          <internalNodes>
            0 -1 67 1329652028 1970673591 -779070081 -12275321
            -640569353 -209610317 -323248901 4710982</internalNodes>
          <leafValues>
            -4.6847110986709595e-01 3.4164100885391235e-01</leafValues></_>
        <_>
          <internalNodes>
            0 -1 11 -68157496 -233842185 -1048077556 -20458545 856126753
            2055405587 1669298032 -822409</internalNodes>
          <leafValues>
            -5.4713898897171021e-01 3.1098446249961853e-01</leafValues></_>
        <_>
          <internalNodes>
            0 -1 110 1568079312 -1315049040 -232535267 -11390195
            -834630680 -607630390 -388212226 754502901</internalNodes>
          <leafValues>
            -6.9389402866363525e-01 2.4653339385986328e-01</leafValues></_>
        <_>
          <internalNodes>
            0 -1 90 -671663747 -1812601002 -646899279 -648419456
            1599072748 -1432041228 -69767688 -915019206</internalNodes>
          <leafValues>
            -4.1262823343276978e-01 4.0817898511886597e-01</leafValues></_></weakClassifiers></_>
    <!-- stage 12 -->
    <_>
      <maxWeakCount>9</maxWeakCount>
      <stageThreshold>-1.8336292505264282e+00</stageThreshold>
      <weakClassifiers>
        <_>
          <internalNodes>
            0 -1 51 -67371009 -1574922 1910044245 1968689229 -74458721
            -69209465 998242783 -5153</internalNodes>
          <leafValues>
            -7.8115141391754150e-01 -9.5152601599693298e-02</leafValues></_>
        <_>
          <internalNodes>
            0 -1 14 -539492609 -1064467829 -1072970657 -1936994225
            425815541 -347379579 -557449489 2138535911</internalNodes>
          <leafValues>
            -5.0275796651840210e-01 2.2054030001163483e-01</leafValues></_>
        <_>
          <internalNodes>
            0 -1 23 1744895908 -74409164 -727979817 -854323 1089272829
            -24187495 2058374124 -76188203</internalNodes>
          <leafValues>
            -5.4369848966598511e-01 2.4824491143226624e-01</leafValues></_>
        <_>
          <internalNodes>
            0 -1 7 -1700857350 -1665117 329502399 -536876129 -1148077060
            -1116947577 1848306648 1180762144</internalNodes>
          <leafValues>
            -6.5820711851119995e-01 2.1240258216857910e-01</leafValues></_>
        <_>
          <internalNodes>
            0 -1 99 -16823203 520559446 -196941315 782695038 666794048
            -1087667733 2060480116 -1569260746</internalNodes>
          <leafValues>
            -5.3858172893524170e-01 2.8512096405029297e-01</leafValues></_>
        <_>
          <internalNodes>
            0 -1 101 -782963716 -1644523105 927276507 -2176158
            -351565603 -873313537 -938492931 274884096</internalNodes>
          <leafValues>
            -6.0348486900329590e-01 2.4205103516578674e-01</leafValues></_>
        <_>
          <internalNodes>
            0 -1 65 -88104406 -1228779009 -1404006496 -1214974701
            1774254040 1495269553 -1877248785 2071309757</internalNodes>
          <leafValues>
            -6.4780235290527344e-01 2.3563548922538757e-01</leafValues></_>
        <_>
          <internalNodes>
            0 -1 34 -1075844201 -926065835 -1001404182 -667691812
            1240822323 1613189239 1913092900 -177739929</internalNodes>
          <leafValues>
            -5.4757213592529297e-01 2.6375931501388550e-01</leafValues></_>
        <_>
          <internalNodes>
            0 -1 114 -1074045605 -547127300 -17367427 452881910
            -554650369 -1073758220 -553713698 -31525121</internalNodes>
          <leafValues>
            -3.2979369163513184e-01 4.7612667083740234e-01</leafValues></_></weakClassifiers></_>
    <!-- stage 13 -->
    <_>
      <maxWeakCount>9</maxWeakCount>
      <stageThreshold>-1.7927633523941040e+00</stageThreshold>
      <weakClassifiers>
        <_>
          <internalNodes>
            0 -1 22 -68157441 -76916826 -259465447 1432343927 -870592033
            -24139330 -521430321 -8389153</internalNodes>
          <leafValues>
            -8.0016720294952393e-01 -2.2130177915096283e-01</leafValues></_>
        <_>
          <internalNodes>
            0 -1 32 -587464852 -522727843 -1392355937 -168832101
            2051505139 -190118811 1860529902 2004318071</internalNodes>
          <leafValues>
            -6.2858343124389648e-01 8.7269917130470276e-02</leafValues></_>
        <_>
          <internalNodes>
            0 -1 56 -543162465 -1078193190 -584780294 -1619068034
            1051462556 -657968868 1610624248 -69402758</internalNodes>
          <leafValues>
            -3.9520683884620667e-01 3.3706033229827881e-01</leafValues></_>
        <_>
          <internalNodes>
            0 -1 13 1606149478 -69734369 -1064579700 -250623477
            912540656 1149812919 1799256029 2145874295</internalNodes>
          <leafValues>
            -5.1133221387863159e-01 2.6845675706863403e-01</leafValues></_>
        <_>
          <internalNodes>
            0 -1 98 243236051 -1367643722 -777617929 786357138
            1909418756 -86259362 -2434860 -459998364</internalNodes>
          <leafValues>
            -5.4580986499786377e-01 2.8496077656745911e-01</leafValues></_>
        <_>
          <internalNodes>
            0 -1 112 1995422823 -36234113 -1667967346 -1338074882
            1597660500 -917935158 -1299850556 -991431186</internalNodes>
          <leafValues>
            -4.9306422472000122e-01 2.9393559694290161e-01</leafValues></_>
        <_>
          <internalNodes>
            0 -1 119 -60113697 1079671248 -1177530012 550337261
            714625674 -857623877 -1181833025 -789387041</internalNodes>
          <leafValues>
            -3.9514312148094177e-01 3.6132586002349854e-01</leafValues></_>
        <_>
          <internalNodes>
            0 -1 94 -1636034699 -1076375105 -1060514209 -1885449975
            -17400080 -605157198 -356201348 -568560800</internalNodes>
          <leafValues>
            -5.3299474716186523e-01 2.8855708241462708e-01</leafValues></_>
        <_>
          <internalNodes>
            0 -1 19 -90012746 -1690246272 -857943564 -117057338
            -363267889 -2009560947 -305124156 1641511114</internalNodes>
          <leafValues>
            -5.6332945823669434e-01 2.5742706656455994e-01</leafValues></_></weakClassifiers></_>
    <!-- stage 14 -->
    <_>
      <maxWeakCount>12</maxWeakCount>
      <stageThreshold>-1.6984919309616089e+00</stageThreshold>
      <weakClassifiers>
        <_>
          <internalNodes>
            0 -1 55 -69208065 -8409737 -1828061697 -33564037 -7667713
            -14894212 -14286865 -538980369</internalNodes>
          <leafValues>
            -7.6407915353775024e-01 2.6809652335941792e-03</leafValues></_>
        <_>
          <internalNodes>
            0 -1 78 -1103841315 -583093797 -742024194 -2628674 -38897169
            -1082528358 -1090938116 -2012085244</internalNodes>
          <leafValues>
            -6.2543290853500366e-01 5.7997062802314758e-02</leafValues></_>
        <_>
          <internalNodes>
            0 -1 58 -393286614 -346511928 -602921644 -207032514
            -84390913 1069039800 1741253902 1172302847</internalNodes>
          <leafValues>
            -5.8206212520599365e-01 2.1360924839973450e-01</leafValues></_>
        <_>
          <internalNodes>
            0 -1 43 -69732570 -115634791 -678693938 -120718180
            1934050167 1732454947 2001173751 2004317703</internalNodes>
          <leafValues>
            -5.9318590164184570e-01 2.4264544248580933e-01</leafValues></_>
        <_>
          <internalNodes>
            0 -1 108 1029570487 150107152 1800139230 -464760336
            -1414759265 -1903699718 1258149860 -388105244</internalNodes>
          <leafValues>
            -4.6421447396278381e-01 2.7672192454338074e-01</leafValues></_>
        <_>
          <internalNodes>
            0 -1 95 -3670433 2136801078 -1359413261 -1178796570
            -537233956 -25233506 -522125590 1537572603</internalNodes>
          <leafValues>
            -3.3694440126419067e-01 4.1119369864463806e-01</leafValues></_>
        <_>
          <internalNodes>
            0 -1 74 -209716296 -207658668 -1055734371 -1377713392
            -1153242434 -1734827268 -1495793154 1196673967</internalNodes>
          <leafValues>
            -3.8052758574485779e-01 3.7385752797126770e-01</leafValues></_>
        <_>
          <internalNodes>
            0 -1 69 1240727451 -1930502454 -1953238256 -1445939248
            1639603838 1793323773 -758629520 -571616560</internalNodes>
          <leafValues>
            -4.6939060091972351e-01 2.9508274793624878e-01</leafValues></_>
        <_>
          <internalNodes>
            0 -1 18 -399836030 -78491174 -157576559 -105264972
            1347271150 -83780673 -805203815 173206489</internalNodes>
          <leafValues>
            -4.7561043500900269e-01 2.8493928909301758e-01</leafValues></_>
        <_>
          <internalNodes>
            0 -1 30 -178260542 1187614991 -602746454 -5383869 1359096164
            286501987 -481956618 -201853577</internalNodes>
          <leafValues>
            -4.7361057996749878e-01 2.8811779618263245e-01</leafValues></_>
        <_>
          <internalNodes>
            0 -1 53 731797853 -1073859113 1490162525 -1081574473
            1515759736 -553105348 764162168 705748852</internalNodes>
          <leafValues>
            -6.1181455850601196e-01 2.3031215369701385e-01</leafValues></_>
        <_>
          <internalNodes>
            0 -1 105 -244043267 -577380381 1497484703 -2110119
            -1165369875 -7994820 -1432846403 -1601626624</internalNodes>
          <leafValues>
            -4.5510888099670410e-01 3.0409738421440125e-01</leafValues></_></weakClassifiers></_>
    <!-- stage 15 -->
    <_>
      <maxWeakCount>11</maxWeakCount>
      <stageThreshold>-1.8665462732315063e+00</stageThreshold>
      <weakClassifiers>
        <_>
          <internalNodes>
            0 -1 24 -270540833 -111935494 1402902461 -35785553 -72431185
            -5559314 -544231937 -2106437</internalNodes>
          <leafValues>
            -7.6968044042587280e-01 -1.3078470528125763e-01</leafValues></_>
        <_>
          <internalNodes>
            0 -1 89 980171804 -543255589 -1760364291 -1082960518
            -73532451 -348315501 -84288851 1075446784</internalNodes>
          <leafValues>
            -6.7353838682174683e-01 3.1051389873027802e-02</leafValues></_>
        <_>
          <internalNodes>
            0 -1 3 -241435418 -606615334 -670575284 1493690463
            2076918325 -1433908153 992048993 1987539815</internalNodes>
          <leafValues>
            -6.0668307542800903e-01 1.8667829036712646e-01</leafValues></_>
        <_>
          <internalNodes>
            0 -1 111 -73924805 400487535 -605531998 -1575357869
            2131983180 488312877 -408756492 -201853353</internalNodes>
          <leafValues>
            -4.4721037149429321e-01 3.0997776985168457e-01</leafValues></_>
        <_>
          <internalNodes>
            0 -1 88 -4194317 -277090574 -1342177291 -8851988 -9503256
            -824397828 1878576570 1406127274</internalNodes>
          <leafValues>
            -3.4590628743171692e-01 3.7942478060722351e-01</leafValues></_>
        <_>
          <internalNodes>
            0 -1 120 -121641549 1586294 -120089231 8911094 -1336612254
            1099498273 -957290002 -2131566138</internalNodes>
          <leafValues>
            -4.2357829213142395e-01 3.1125009059906006e-01</leafValues></_>
        <_>
          <internalNodes>
            0 -1 72 -670043205 -355680362 -1718102251 -889335216
            1795127285 -1428497935 -1099686043 -800065183</internalNodes>
          <leafValues>
            -4.1755589842796326e-01 3.4110155701637268e-01</leafValues></_>
        <_>
          <internalNodes>
            0 -1 29 -1176581714 1497780876 1074249887 -1048197555
            1139098549 671203479 1783056847 1609921143</internalNodes>
          <leafValues>
            -4.9695599079132080e-01 2.7232033014297485e-01</leafValues></_>
        <_>
          <internalNodes>
            0 -1 81 1869088180 -681798217 269488639 -1074424993
            -43699975 -303496726 -808996871 -2138683390</internalNodes>
          <leafValues>
            -4.6445047855377197e-01 3.0795824527740479e-01</leafValues></_>
        <_>
          <internalNodes>
            0 -1 121 -1561541473 49689744 -752972289 406606088 248933291
            -1193213546 624646847 586576895</internalNodes>
          <leafValues>
            -4.9340054392814636e-01 2.9143136739730835e-01</leafValues></_>
        <_>
          <internalNodes>
            0 -1 59 -684199973 -136324232 1406161111 -60910264
            1431051120 324927516 1588261596 2131946554</internalNodes>
          <leafValues>
            -4.3435579538345337e-01 3.3912831544876099e-01</leafValues></_></weakClassifiers></_></stages>
  <features>
    <_>
      <rect>
        0 0 1 1</rect></_>
    <_>
      <rect>
        0 0 1 2</rect></_>
    <_>
      <rect>
        0 0 1 3</rect></_>
    <_>
      <rect>
        0 0 1 4</rect></_>
    <_>
      <rect>
        0 0 1 6</rect></_>
    <_>
      <rect>
        0 0 2 1</rect></_>
    <_>
      <rect>
        0 0 2 2</rect></_>
    <_>
      <rect>
        0 0 3 1</rect></_>
    <_>
      <rect>
        0 0 7 1</rect></_>
    <_>
      <rect>
        0 0 10 8</rect></_>
    <_>
      <rect>
        0 2 8 16</rect></_>
    <_>
      <rect>
        0 3 1 2</rect></_>
    <_>
      <rect>
        0 3 1 9</rect></_>
    <_>
      <rect>
        0 4 1 8</rect></_>
    <_>
      <rect>
        0 4 1 15</rect></_>
    <_>
      <rect>
        0 4 2 6</rect></_>
    <_>
      <rect>
        0 6 1 3</rect></_>
    <_>
      <rect>
        0 6 1 4</rect></_>
    <_>
      <rect>
        0 6 4 11</rect></_>
    <_>
      <rect>
        0 6 9 8</rect></_>
    <_>
      <rect>
        0 8 13 14</rect></_>
    <_>
      <rect>
        0 9 5 3</rect></_>
    <_>
      <rect>
        0 9 8 9</rect></_>
    <_>
      <rect>
        0 10 3 11</rect></_>
    <_>
      <rect>
        0 10 7 13</rect></_>
    <_>
      <rect>
        0 13 1 6</rect></_>
    <_>
      <rect>
        0 15 1 2</rect></_>
    <_>
      <rect>
        0 17 6 3</rect></_>
    <_>
      <rect>
        0 19 1 6</rect></_>
    <_>
      <rect>
        0 20 1 9</rect></_>
    <_>
      <rect>
        0 22 1 1</rect></_>
    <_>
      <rect>
        0 22 1 5</rect></_>
    <_>
      <rect>
        0 26 1 8</rect></_>
    <_>
      <rect>
        0 27 1 7</rect></_>
    <_>
      <rect>
        0 28 1 2</rect></_>
    <_>
      <rect>
        0 28 1 5</rect></_>
    <_>
      <rect>
        0 29 1 2</rect></_>
    <_>
      <rect>
        0 29 1 6</rect></_>
    <_>
      <rect>
        0 31 1 5</rect></_>
    <_>
      <rect>
        0 35 1 5</rect></_>
    <_>
      <rect>
        0 36 1 2</rect></_>
    <_>
      <rect>
        0 38 1 4</rect></_>
    <_>
      <rect>
        0 39 1 3</rect></_>
    <_>
      <rect>
        0 40 1 2</rect></_>
    <_>
      <rect>
        0 42 1 2</rect></_>
    <_>
      <rect>
        0 44 1 2</rect></_>
    <_>
      <rect>
        0 47 1 1</rect></_>
    <_>
      <rect>
        1 0 2 1</rect></_>
    <_>
      <rect>
        1 0 15 8</rect></_>
    <_>
      <rect>
        1 1 16 11</rect></_>
    <_>
      <rect>
        1 8 6 14</rect></_>
    <_>
      <rect>
        1 8 8 9</rect></_>
    <_>
      <rect>
        2 0 11 12</rect></_>
    <_>
      <rect>
        2 32 3 6</rect></_>
    <_>
      <rect>
        3 4 3 15</rect></_>
    <_>
      <rect>
        3 21 10 8</rect></_>
    <_>
      <rect>
        3 29 5 7</rect></_>
    <_>
      <rect>
        4 0 2 1</rect></_>
    <_>
      <rect>
        4 0 11 4</rect></_>
    <_>
      <rect>
        4 35 6 5</rect></_>
    <_>
      <rect>
        5 0 15 14</rect></_>
    <_>
      <rect>
        5 1 15 4</rect></_>
    <_>
      <rect>
        6 0 4 1</rect></_>
    <_>
      <rect>
        6 11 3 3</rect></_>
    <_>
      <rect>
        7 0 5 1</rect></_>
    <_>
      <rect>
        7 0 14 6</rect></_>
    <_>
      <rect>
        8 1 5 8</rect></_>
    <_>
      <rect>
        9 0 7 1</rect></_>
    <_>
      <rect>
        10 0 1 1</rect></_>
    <_>
      <rect>
        10 10 3 2</rect></_>
    <_>
      <rect>
        11 1 6 5</rect></_>
    <_>
      <rect>
        11 3 13 15</rect></_>
    <_>
      <rect>
        12 20 2 2</rect></_>
    <_>
      <rect>
        12 37 5 4</rect></_>
    <_>
      <rect>
        13 22 9 6</rect></_>
    <_>
      <rect>
        14 14 2 3</rect></_>
    <_>
      <rect>
        15 0 8 1</rect></_>
    <_>
      <rect>
        16 33 2 5</rect></_>
    <_>
      <rect>
        18 0 1 1</rect></_>
    <_>
      <rect>
        18 0 2 1</rect></_>
    <_>
      <rect>
        18 16 2 3</rect></_>
    <_>
      <rect>
        19 0 4 1</rect></_>
    <_>
      <rect>
        19 8 10 14</rect></_>
    <_>
      <rect>
        20 12 8 8</rect></_>
    <_>
      <rect>
        21 0 2 1</rect></_>
    <_>
      <rect>
        21 2 9 8</rect></_>
    <_>
      <rect>
        22 0 9 5</rect></_>
    <_>
      <rect>
        24 0 2 1</rect></_>
    <_>
      <rect>
        24 17 7 7</rect></_>
    <_>
      <rect>
        25 0 3 1</rect></_>
    <_>
      <rect>
        25 29 7 7</rect></_>
    <_>
      <rect>
        26 1 8 12</rect></_>
    <_>
      <rect>
        27 0 4 1</rect></_>
    <_>
      <rect>
        27 0 7 10</rect></_>
    <_>
      <rect>
        27 5 2 3</rect></_>
    <_>
      <rect>
        28 11 6 6</rect></_>
    <_>
      <rect>
        30 0 1 1</rect></_>
    <_>
      <rect>
        30 0 6 1</rect></_>
    <_>
      <rect>
        30 13 2 2</rect></_>
    <_>
      <rect>
        31 6 4 4</rect></_>
    <_>
      <rect>
        31 14 3 2</rect></_>
    <_>
      <rect>
        32 0 5 1</rect></_>
    <_>
      <rect>
        32 5 6 14</rect></_>
    <_>
      <rect>
        34 0 2 1</rect></_>
    <_>
      <rect>
        34 12 4 4</rect></_>
    <_>
      <rect>
        35 0 2 1</rect></_>
    <_>
      <rect>
        35 0 5 3</rect></_>
    <_>
      <rect>
        35 16 5 3</rect></_>
    <_>
      <rect>
        35 33 3 3</rect></_>
    <_>
      <rect>
        37 17 3 3</rect></_>
    <_>
      <rect>
        38 1 4 16</rect></_>
    <_>
      <rect>
        38 12 4 2</rect></_>
    <_>
      <rect>
        38 19 4 3</rect></_>
    <_>
      <rect>
        40 0 2 1</rect></_>
    <_>
      <rect>
        40 15 1 2</rect></_>
    <_>
      <rect>
        41 0 2 1</rect></_>
    <_>
      <rect>
        41 0 3 1</rect></_>
    <_>
      <rect>
        41 29 2 4</rect></_>
    <_>
      <rect>
        44 0 2 1</rect></_>
    <_>
      <rect>
        47 6 1 1</rect></_>
    <_>
      <rect>
        47 14 1 1</rect></_>
    <_>
      <rect>
        47 44 1 2</rect></_></features></cascade>
</opencv_storage>
